{"train": {"loss": 0.30411896109580994, "acc": 0.8857142925262451}, "_runtime": 221, "_timestamp": 1642626096, "_step": 2999, "val": {"loss": 1.5175443887710571, "acc": 0.6380000114440918}, "test": {"acc": 0.6579999923706055}, "gradients/conv2.bias": {"_type": "histogram", "values": [1.0, 0.0, 0.0, 0.0, 0.0, 0.0, 0.0, 0.0, 0.0, 0.0, 0.0, 0.0, 0.0, 0.0, 0.0, 0.0, 0.0, 0.0, 0.0, 0.0, 0.0, 0.0, 0.0, 0.0, 0.0, 0.0, 0.0, 0.0, 0.0, 0.0, 0.0, 1.0, 0.0, 0.0, 0.0, 0.0, 1.0, 1.0, 0.0, 0.0, 0.0, 0.0, 0.0, 0.0, 0.0, 0.0, 0.0, 0.0, 0.0, 0.0, 0.0, 0.0, 0.0, 1.0, 0.0, 0.0, 0.0, 0.0, 0.0, 0.0, 0.0, 0.0, 1.0, 1.0], "bins": [-0.017485007643699646, -0.017057491466403008, -0.01662997528910637, -0.01620246097445488, -0.01577494479715824, -0.015347428619861603, -0.014919912442564964, -0.0144923971965909, -0.014064881950616837, -0.013637365773320198, -0.013209850527346134, -0.012782334350049496, -0.012354819104075432, -0.011927302926778793, -0.011499786749482155, -0.011072271503508091, -0.010644755326211452, -0.010217239148914814, -0.00978972390294075, -0.009362207725644112, -0.008934692479670048, -0.00850717630237341, -0.008079661056399345, -0.007652144879102707, -0.007224628701806068, -0.006797112990170717, -0.006369597278535366, -0.005942081101238728, -0.005514565855264664, -0.005087049677968025, -0.004659533966332674, -0.004232018254697323, -0.003804503008723259, -0.003376987297087908, -0.0029494715854525566, -0.0025219556409865618, -0.0020944399293512106, -0.0016669242177158594, -0.0012394082732498646, -0.0008118925616145134, -0.0003843773156404495, 4.313845420256257e-05, 0.00047065422404557467, 0.0008981700520962477, 0.0013256857637315989, 0.00175320147536695, 0.002180717419832945, 0.002608233131468296, 0.0030357493087649345, 0.0034632650204002857, 0.003890780732035637, 0.004318296909332275, 0.004745812155306339, 0.005173328332602978, 0.005600844044238329, 0.00602835975587368, 0.006455875467509031, 0.0068833911791443825, 0.007310906890779734, 0.007738422602415085, 0.008165938779711723, 0.008593454025685787, 0.009020970202982426, 0.00944848544895649, 0.009876001626253128]}, "gradients/conv2.att_dst": {"_type": "histogram", "values": [1.0, 0.0, 0.0, 0.0, 0.0, 0.0, 0.0, 0.0, 0.0, 0.0, 0.0, 1.0, 0.0, 0.0, 0.0, 0.0, 0.0, 0.0, 0.0, 0.0, 0.0, 0.0, 0.0, 0.0, 1.0, 0.0, 0.0, 0.0, 0.0, 0.0, 0.0, 0.0, 0.0, 0.0, 1.0, 0.0, 0.0, 0.0, 0.0, 0.0, 0.0, 0.0, 1.0, 0.0, 0.0, 0.0, 0.0, 0.0, 0.0, 0.0, 0.0, 0.0, 0.0, 0.0, 0.0, 0.0, 0.0, 0.0, 0.0, 0.0, 0.0, 0.0, 1.0, 1.0], "bins": [-1.5544685538770864e-09, -1.5244467910235926e-09, -1.4944250281700988e-09, -1.464403265316605e-09, -1.4343815024631112e-09, -1.4043597396096175e-09, -1.3743379767561237e-09, -1.3443161028803274e-09, -1.3142943400268337e-09, -1.2842725771733399e-09, -1.254250814319846e-09, -1.2242290514663523e-09, -1.1942072886128585e-09, -1.1641854147370623e-09, -1.1341636518835685e-09, -1.1041418890300747e-09, -1.074120126176581e-09, -1.0440983633230871e-09, -1.0140766004695934e-09, -9.840548376160996e-10, -9.540330747626058e-10, -9.240112563979608e-10, -8.93989493544467e-10, -8.639677306909732e-10, -8.339460233486307e-10, -8.039242604951369e-10, -7.739024976416431e-10, -7.438807347881493e-10, -7.138589164235043e-10, -6.838371535700105e-10, -6.538153907165167e-10, -6.237936278630229e-10, -5.937718094983779e-10, -5.637500466448842e-10, -5.337282837913904e-10, -5.037065209378966e-10, -4.736847025732516e-10, -4.436629397197578e-10, -4.13641176866264e-10, -3.836194140127702e-10, -3.535975956481252e-10, -3.235758327946314e-10, -2.93554042185562e-10, -2.6353227933206824e-10, -2.3351048872299884e-10, -2.0348872586950506e-10, -1.7346696301601128e-10, -1.4344518628472969e-10, -1.1342343730902371e-10, -8.340166057774212e-11, -5.3379890785354434e-11, -2.3358120992966747e-11, 6.663655738314844e-12, 3.6685432469596435e-11, 6.670719532309022e-11, 9.672897205437181e-11, 1.267507487856534e-10, 1.56772525516935e-10, 1.8679430224821658e-10, 2.1681606510171036e-10, 2.4683782795520415e-10, 2.7685961856427355e-10, 3.0688138141776733e-10, 3.3690317202683673e-10, 3.669249348803305e-10]}, "gradients/conv2.att_src": {"_type": "histogram", "values": [1.0, 0.0, 1.0, 0.0, 1.0, 0.0, 0.0, 1.0, 0.0, 0.0, 0.0, 0.0, 0.0, 1.0, 0.0, 0.0, 1.0, 0.0, 0.0, 0.0, 0.0, 0.0, 0.0, 0.0, 0.0, 0.0, 0.0, 0.0, 0.0, 0.0, 0.0, 0.0, 0.0, 0.0, 0.0, 0.0, 0.0, 0.0, 0.0, 0.0, 0.0, 0.0, 0.0, 0.0, 0.0, 0.0, 0.0, 0.0, 0.0, 0.0, 0.0, 0.0, 0.0, 0.0, 0.0, 0.0, 0.0, 0.0, 0.0, 0.0, 0.0, 0.0, 0.0, 1.0], "bins": [-0.005257737822830677, -0.005023899953812361, -0.004790062550455332, -0.0045562246814370155, -0.004322386812418699, -0.00408854940906167, -0.003854711540043354, -0.0036208739038556814, -0.003387036267668009, -0.003153198631480336, -0.00291936076246202, -0.0026855231262743473, -0.0024516854900866747, -0.002217847853899002, -0.001984009984880686, -0.0017501723486930132, -0.001516334479674697, -0.0012824967270717025, -0.0010486590908840299, -0.0008148213382810354, -0.0005809836438857019, -0.00034714594949036837, -0.00011330819688737392, 0.00012052943930029869, 0.00035436730831861496, 0.0005882050027139485, 0.000822042697109282, 0.0010558804497122765, 0.001289718085899949, 0.0015235558385029435, 0.001757393591105938, 0.0019912312272936106, 0.002225068863481283, 0.002458906499668956, 0.002692744368687272, 0.0029265820048749447, 0.0031604196410626173, 0.00339425727725029, 0.003628095146268606, 0.003861932782456279, 0.004095770418643951, 0.004329608287662268, 0.004563445691019297, 0.004797283560037613, 0.005031121429055929, 0.005264958832412958, 0.005498796701431274, 0.005732634104788303, 0.005966472439467907, 0.006200310308486223, 0.006434147711843252, 0.0066679855808615685, 0.006901823449879885, 0.007135660853236914, 0.00736949872225523, 0.007603336125612259, 0.007837173528969288, 0.008071010932326317, 0.00830484926700592, 0.00853868667036295, 0.008772524073719978, 0.009006362408399582, 0.009240199811756611, 0.00947403721511364, 0.009707875549793243]}, "gradients/conv2.lin_src.weight": {"_type": "histogram", "values": [1.0, 0.0, 0.0, 0.0, 0.0, 0.0, 0.0, 0.0, 0.0, 0.0, 0.0, 2.0, 0.0, 1.0, 1.0, 0.0, 1.0, 1.0, 0.0, 2.0, 1.0, 7.0, 7.0, 5.0, 8.0, 15.0, 15.0, 43.0, 53.0, 70.0, 58.0, 55.0, 29.0, 29.0, 19.0, 11.0, 2.0, 3.0, 2.0, 2.0, 1.0, 0.0, 0.0, 1.0, 0.0, 0.0, 1.0, 0.0, 0.0, 1.0, 0.0, 0.0, 0.0, 0.0, 0.0, 0.0, 0.0, 0.0, 0.0, 0.0, 0.0, 0.0, 0.0, 1.0], "bins": [-0.006892726756632328, -0.006658714730292559, -0.006424702238291502, -0.006190690211951733, -0.005956677719950676, -0.005722665693610907, -0.005488653667271137, -0.005254641175270081, -0.005020629148930311, -0.004786617122590542, -0.004552604630589485, -0.004318592604249716, -0.0040845805779099464, -0.0038505680859088898, -0.0036165560595691204, -0.0033825438003987074, -0.0031485315412282944, -0.0029145192820578814, -0.0026805070228874683, -0.002446494996547699, -0.002212482737377286, -0.001978470478206873, -0.0017444583354517817, -0.0015104461926966906, -0.0012764339335262775, -0.0010424216743558645, -0.0008084095316007733, -0.0005743973306380212, -0.0003403851296752691, -0.00010637287050485611, 0.00012763927225023508, 0.00036165141500532627, 0.0005956636741757393, 0.0008296758751384914, 0.0010636880761012435, 0.0012977002188563347, 0.0015317124780267477, 0.0017657247371971607, 0.00199973676353693, 0.002233749022707343, 0.002467761281877756, 0.002701773541048169, 0.002935785800218582, 0.0031697978265583515, 0.0034038100857287645, 0.0036378223448991776, 0.003871834371238947, 0.004105846397578716, 0.004339858889579773, 0.004573870915919542, 0.004807883407920599, 0.005041895434260368, 0.005275907926261425, 0.005509919952601194, 0.005743931978940964, 0.00597794447094202, 0.00621195649728179, 0.006445968523621559, 0.006679981015622616, 0.006913993041962385, 0.0071480050683021545, 0.007382017560303211, 0.007616029586642981, 0.00785004161298275, 0.008084054104983807]}, "gradients/conv1.bias": {"_type": "histogram", "values": [1.0, 0.0, 0.0, 2.0, 2.0, 1.0, 1.0, 3.0, 2.0, 3.0, 2.0, 1.0, 1.0, 0.0, 1.0, 0.0, 0.0, 1.0, 4.0, 3.0, 1.0, 1.0, 1.0, 0.0, 0.0, 0.0, 0.0, 0.0, 1.0, 1.0, 2.0, 1.0, 2.0, 1.0, 0.0, 2.0, 3.0, 2.0, 1.0, 4.0, 1.0, 0.0, 0.0, 1.0, 0.0, 1.0, 0.0, 1.0, 1.0, 0.0, 0.0, 0.0, 0.0, 2.0, 2.0, 1.0, 1.0, 0.0, 0.0, 1.0, 0.0, 0.0, 0.0, 1.0], "bins": [-0.0017466493882238865, -0.0016890426632016897, -0.001631435938179493, -0.0015738292131572962, -0.0015162224881350994, -0.0014586157631129026, -0.0014010090380907059, -0.001343402313068509, -0.0012857955880463123, -0.0012281888630241156, -0.0011705821380019188, -0.001112975412979722, -0.0010553686879575253, -0.0009977619629353285, -0.0009401552379131317, -0.0008825485128909349, -0.0008249417878687382, -0.0007673350628465414, -0.0007097283378243446, -0.0006521216128021479, -0.0005945148877799511, -0.0005369081627577543, -0.00047930143773555756, -0.0004216947127133608, -0.000364087987691164, -0.00030648126266896725, -0.0002488745376467705, -0.0001912678126245737, -0.00013366108760237694, -7.605436258018017e-05, -1.84476375579834e-05, 3.915908746421337e-05, 9.676592890173197e-05, 0.00015437265392392874, 0.0002119793789461255, 0.0002695861039683223, 0.00032719282899051905, 0.0003847995540127158, 0.0004424062790349126, 0.0005000130040571094, 0.0005576197290793061, 0.0006152264541015029, 0.0006728331791236997, 0.0007304399041458964, 0.0007880466291680932, 0.00084565335419029, 0.0009032600792124867, 0.0009608668042346835, 0.0010184735292568803, 0.001076080254279077, 0.0011336869793012738, 0.0011912937043234706, 0.0012489004293456674, 0.0013065071543678641, 0.001364113879390061, 0.0014217206044122577, 0.0014793273294344544, 0.0015369340544566512, 0.001594540779478848, 0.0016521475045010448, 0.0017097542295232415, 0.0017673609545454383, 0.001824967679567635, 0.0018825744045898318, 0.0019401811296120286]}, "gradients/conv1.att_dst": {"_type": "histogram", "values": [1.0, 1.0, 0.0, 0.0, 0.0, 0.0, 0.0, 0.0, 0.0, 0.0, 0.0, 0.0, 0.0, 0.0, 0.0, 2.0, 0.0, 1.0, 0.0, 0.0, 0.0, 1.0, 2.0, 2.0, 0.0, 4.0, 2.0, 3.0, 2.0, 2.0, 2.0, 3.0, 2.0, 4.0, 0.0, 4.0, 4.0, 2.0, 4.0, 1.0, 2.0, 2.0, 2.0, 0.0, 0.0, 1.0, 0.0, 1.0, 1.0, 1.0, 0.0, 0.0, 1.0, 0.0, 2.0, 0.0, 1.0, 0.0, 0.0, 0.0, 0.0, 0.0, 0.0, 1.0], "bins": [-0.0018842072458937764, -0.0018334591295570135, -0.0017827111296355724, -0.0017319630132988095, -0.0016812150133773685, -0.0016304668970406055, -0.0015797188971191645, -0.0015289707807824016, -0.0014782226644456387, -0.0014274745481088758, -0.0013767265481874347, -0.0013259784318506718, -0.0012752304319292307, -0.0012244823155924678, -0.0011737341992557049, -0.0011229861993342638, -0.0010722381994128227, -0.0010214900830760598, -0.0009707420831546187, -0.0009199939668178558, -0.0008692459668964148, -0.0008184978505596519, -0.0007677497924305499, -0.0007170017343014479, -0.000666253617964685, -0.000615505559835583, -0.000564757501706481, -0.0005140093853697181, -0.00046326135634444654, -0.00041251329821534455, -0.0003617652109824121, -0.0003110171528533101, -0.0002602690365165472, -0.0002095209783874452, -0.000158772905706428, -0.00010802483302541077, -5.727677489630878e-05, -6.528716767206788e-06, 4.421937046572566e-05, 9.496742859482765e-05, 0.00014571542851626873, 0.00019646348664537072, 0.0002472115447744727, 0.00029795963200740516, 0.00034870769013650715, 0.00039945574826560915, 0.0004502038354985416, 0.0005009518936276436, 0.0005517000099644065, 0.0006024480680935085, 0.0006531961262226105, 0.0007039442425593734, 0.0007546922424808145, 0.0008054403588175774, 0.0008561884169466794, 0.0009069364750757813, 0.0009576845332048833, 0.0010084325913339853, 0.0010591807076707482, 0.0011099287075921893, 0.0011606768239289522, 0.0012114248238503933, 0.0012621729401871562, 0.001312921056523919, 0.0013636690564453602]}, "gradients/conv1.att_src": {"_type": "histogram", "values": [1.0, 1.0, 0.0, 0.0, 1.0, 0.0, 0.0, 1.0, 0.0, 0.0, 1.0, 0.0, 0.0, 1.0, 1.0, 2.0, 0.0, 3.0, 2.0, 3.0, 4.0, 3.0, 3.0, 2.0, 4.0, 4.0, 1.0, 3.0, 6.0, 2.0, 1.0, 2.0, 1.0, 2.0, 0.0, 0.0, 0.0, 1.0, 1.0, 1.0, 0.0, 0.0, 1.0, 0.0, 0.0, 0.0, 1.0, 1.0, 0.0, 0.0, 1.0, 0.0, 0.0, 1.0, 0.0, 0.0, 0.0, 0.0, 0.0, 0.0, 0.0, 0.0, 0.0, 1.0], "bins": [-0.0034968520049005747, -0.0033563945908099413, -0.003215937176719308, -0.003075479529798031, -0.0029350221157073975, -0.002794564701616764, -0.0026541072875261307, -0.0025136498734354973, -0.002373192459344864, -0.0022327350452542305, -0.002092277631163597, -0.0019518201006576419, -0.0018113625701516867, -0.0016709051560610533, -0.0015304477419704199, -0.0013899902114644647, -0.0012495326809585094, -0.001109075266867876, -0.0009686177363619208, -0.0008281603222712874, -0.0006877028499729931, -0.0005472453776746988, -0.00040678796358406544, -0.0002663304330781102, -0.00012587313540279865, 1.4584322343580425e-05, 0.0001550417800899595, 0.00029549922328442335, 0.00043595669558271766, 0.000576414167881012, 0.0007168715819716454, 0.0008573291124776006, 0.0009977868758141994, 0.0011382442899048328, 0.001278701820410788, 0.0014191592345014215, 0.0015596167650073767, 0.00170007417909801, 0.0018405315931886435, 0.0019809892401099205, 0.002121446654200554, 0.0022619040682911873, 0.0024023614823818207, 0.002542818896472454, 0.002683276543393731, 0.0028237339574843645, 0.002964191371574998, 0.003104649018496275, 0.0032451061997562647, 0.003385563613846898, 0.0035260210279375315, 0.0036664786748588085, 0.003806936088949442, 0.003947393503040075, 0.004087850917130709, 0.004228308331221342, 0.0043687657453119755, 0.004509223159402609, 0.004649680573493242, 0.004790137987583876, 0.004930595401674509, 0.00507105328142643, 0.005211510695517063, 0.0053519681096076965, 0.00549242552369833]}, "gradients/conv1.lin_src.weight": {"_type": "histogram", "values": [1.0, 0.0, 0.0, 4.0, 0.0, 2.0, 10.0, 9.0, 1.0, 2.0, 4.0, 1.0, 5.0, 1.0, 12.0, 10.0, 24.0, 64.0, 64.0, 64.0, 53.0, 91.0, 113.0, 221.0, 313.0, 529.0, 831.0, 1929.0, 9397.0, 72849.0, 2606.0, 832.0, 498.0, 420.0, 221.0, 134.0, 66.0, 52.0, 59.0, 44.0, 15.0, 14.0, 31.0, 7.0, 9.0, 3.0, 20.0, 9.0, 10.0, 13.0, 10.0, 12.0, 6.0, 7.0, 0.0, 3.0, 3.0, 1.0, 2.0, 0.0, 0.0, 0.0, 0.0, 1.0], "bins": [-0.0033466911409050226, -0.003232144983485341, -0.003117598593235016, -0.0030030524358153343, -0.002888506045565009, -0.0027739598881453276, -0.0026594134978950024, -0.002544867340475321, -0.0024303211830556393, -0.0023157750256359577, -0.0022012286353856325, -0.002086682477965951, -0.0019721360877156258, -0.0018575899302959442, -0.0017430436564609408, -0.0016284973826259375, -0.0015139509923756123, -0.0013994047185406089, -0.0012848584447056055, -0.001170312287285924, -0.0010557658970355988, -0.0009412196814082563, -0.0008266734657809138, -0.0007121271919459105, -0.0005975810345262289, -0.00048303476069122553, -0.0003684885159600526, -0.0002539422712288797, -0.00013939599739387631, -2.4849723558872938e-05, 8.969649206846952e-05, 0.0002042427659034729, 0.00031878938898444176, 0.00043333566281944513, 0.0005478819366544485, 0.000662428152281791, 0.0007769744261167943, 0.0008915206999517977, 0.0010060669155791402, 0.0011206131894141436, 0.0012351595796644688, 0.0013497058534994721, 0.0014642521273344755, 0.001578798284754157, 0.0016933446750044823, 0.0018078908324241638, 0.0019224371062591672, 0.0020369833800941706, 0.002151529537513852, 0.0022660756949335337, 0.002380622085183859, 0.0024951682426035404, 0.0026097146328538656, 0.002724260790273547, 0.0028388071805238724, 0.002953353337943554, 0.0030678994953632355, 0.003182445652782917, 0.0032969920430332422, 0.0034115382004529238, 0.003526084590703249, 0.0036406307481229305, 0.003755176905542612, 0.0038697232957929373, 0.0039842696860432625]}, "_wandb": {"runtime": 218}}