{"train": {"loss": 0.31151995062828064, "acc": 0.8857142925262451}, "_runtime": 215, "_timestamp": 1642625289, "_step": 2999, "val": {"loss": 1.4577499628067017, "acc": 0.6340000033378601}, "test": {"acc": 0.6570000052452087}, "gradients/conv2.bias": {"_type": "histogram", "values": [1.0, 0.0, 0.0, 0.0, 0.0, 0.0, 0.0, 0.0, 0.0, 0.0, 0.0, 0.0, 0.0, 0.0, 0.0, 0.0, 0.0, 0.0, 0.0, 0.0, 0.0, 0.0, 0.0, 0.0, 0.0, 1.0, 0.0, 0.0, 0.0, 0.0, 0.0, 0.0, 1.0, 0.0, 0.0, 0.0, 0.0, 0.0, 0.0, 1.0, 0.0, 0.0, 0.0, 0.0, 1.0, 0.0, 1.0, 0.0, 0.0, 0.0, 0.0, 0.0, 0.0, 0.0, 0.0, 0.0, 0.0, 0.0, 0.0, 0.0, 0.0, 0.0, 0.0, 1.0], "bins": [-0.016419965773820877, -0.0159621424973011, -0.015504320152103901, -0.015046496875584126, -0.01458867359906435, -0.01413085125386715, -0.013673027977347374, -0.013215204700827599, -0.012757381424307823, -0.012299558147788048, -0.011841735802590847, -0.011383912526071072, -0.010926089249551296, -0.010468266904354095, -0.01001044362783432, -0.009552620351314545, -0.009094798006117344, -0.008636974729597569, -0.008179152384400368, -0.007721329107880592, -0.007263505831360817, -0.006805683020502329, -0.006347860209643841, -0.005890036933124065, -0.005432214587926865, -0.0049743917770683765, -0.004516568500548601, -0.004058745689690113, -0.0036009226460009813, -0.0031430996023118496, -0.0026852767914533615, -0.0022274537477642298, -0.0017696293070912361, -0.0013118062634021044, -0.0008539833361282945, -0.00039616040885448456, 6.166263483464718e-05, 0.0005194856785237789, 0.000977308489382267, 0.0014351315330713987, 0.0018929550424218178, 0.0023507780861109495, 0.0028086011298000813, 0.0032664239406585693, 0.003724246984347701, 0.004182070028036833, 0.004639892838895321, 0.005097716115415096, 0.005555538460612297, 0.006013361271470785, 0.0064711845479905605, 0.006929007358849049, 0.007386830635368824, 0.007844652980566025, 0.0083024762570858, 0.008760299533605576, 0.009218122810125351, 0.009675946086645126, 0.010133768431842327, 0.010591591708362103, 0.011049414984881878, 0.011507237330079079, 0.011965060606598854, 0.01242288388311863, 0.01288070622831583]}, "gradients/conv2.att_dst": {"_type": "histogram", "values": [3.0, 0.0, 0.0, 0.0, 0.0, 0.0, 0.0, 0.0, 0.0, 0.0, 0.0, 0.0, 0.0, 1.0, 0.0, 0.0, 0.0, 0.0, 0.0, 0.0, 0.0, 0.0, 0.0, 0.0, 0.0, 0.0, 0.0, 0.0, 0.0, 0.0, 1.0, 0.0, 0.0, 0.0, 0.0, 0.0, 0.0, 0.0, 0.0, 0.0, 0.0, 0.0, 0.0, 0.0, 0.0, 0.0, 0.0, 0.0, 0.0, 0.0, 0.0, 0.0, 0.0, 0.0, 0.0, 0.0, 0.0, 0.0, 0.0, 1.0, 0.0, 0.0, 0.0, 1.0], "bins": [-2.9456255212778615e-09, -2.8648858840796265e-09, -2.7841462468813916e-09, -2.7034068317277615e-09, -2.6226671945295266e-09, -2.5419275573312916e-09, -2.4611879201330567e-09, -2.3804482829348217e-09, -2.2997088677811917e-09, -2.2189692305829567e-09, -2.1382295933847217e-09, -2.0574901782310917e-09, -1.9767505410328567e-09, -1.8960109038346218e-09, -1.8152712666363868e-09, -1.7345316294381519e-09, -1.653791992239917e-09, -1.573052355041682e-09, -1.4923128288657495e-09, -1.4115731916675145e-09, -1.330833665491582e-09, -1.250094028293347e-09, -1.169354391095112e-09, -1.0886147538968771e-09, -1.0078751166986422e-09, -9.271355350115584e-10, -8.463959533244747e-10, -7.656563161262397e-10, -6.84916734439156e-10, -6.041771527520723e-10, -5.234375155538373e-10, -4.426979338667536e-10, -3.619582411573674e-10, -2.812186594702837e-10, -2.0047905002762434e-10, -1.19739440584965e-10, -3.899985889788127e-11, 4.173972278920246e-11, 1.2247935998743742e-10, 2.0321894167452115e-10, 2.839584123393024e-10, 3.6469799402638614e-10, 4.454376034690455e-10, 5.261772129117048e-10, 6.069167945987886e-10, 6.876563762858723e-10, 7.683960134841072e-10, 8.49135595171191e-10, 9.298752878805772e-10, 1.0106149250788121e-09, 1.0913544512547446e-09, 1.1720940884529796e-09, 1.252833614628912e-09, 1.333573251827147e-09, 1.414312889025382e-09, 1.495052526223617e-09, 1.5757920523995494e-09, 1.6565316895977844e-09, 1.737271215773717e-09, 1.8180108529719519e-09, 1.898750490170187e-09, 1.979489905323817e-09, 2.0602297645666567e-09, 2.1409691797202868e-09, 2.2217088169185217e-09]}, "gradients/conv2.att_src": {"_type": "histogram", "values": [1.0, 0.0, 0.0, 0.0, 0.0, 0.0, 0.0, 0.0, 0.0, 0.0, 0.0, 1.0, 0.0, 0.0, 1.0, 0.0, 0.0, 0.0, 0.0, 2.0, 0.0, 0.0, 1.0, 0.0, 0.0, 0.0, 0.0, 0.0, 0.0, 0.0, 0.0, 0.0, 0.0, 0.0, 0.0, 0.0, 0.0, 0.0, 0.0, 0.0, 0.0, 0.0, 0.0, 0.0, 0.0, 0.0, 0.0, 0.0, 0.0, 0.0, 0.0, 0.0, 0.0, 0.0, 0.0, 0.0, 0.0, 0.0, 0.0, 0.0, 0.0, 0.0, 0.0, 1.0], "bins": [-0.03433026000857353, -0.03313411772251129, -0.03193797543644905, -0.03074183315038681, -0.02954569086432457, -0.02834954857826233, -0.027153408154845238, -0.025957265868782997, -0.024761123582720757, -0.023564981296658516, -0.022368839010596275, -0.021172696724534035, -0.019976556301116943, -0.018780414015054703, -0.017584271728992462, -0.01638812944293022, -0.015191987156867981, -0.01399584487080574, -0.0127997025847435, -0.011603561230003834, -0.010407418943941593, -0.009211276657879353, -0.008015135303139687, -0.006818993017077446, -0.005622850731015205, -0.004426708444952965, -0.0032305666245520115, -0.0020344245713204145, -0.0008382825180888176, 0.000357859767973423, 0.0015540015883743763, 0.0027501434087753296, 0.003946289420127869, 0.005142431706190109, 0.0063385735265910625, 0.007534715346992016, 0.008730857633054256, 0.009926999919116497, 0.011123141273856163, 0.012319283559918404, 0.013515425845980644, 0.014711568132042885, 0.015907710418105125, 0.017103852704167366, 0.018299993127584457, 0.019496135413646698, 0.02069227769970894, 0.02188841998577118, 0.02308456227183342, 0.02428070455789566, 0.0254768468439579, 0.02667298913002014, 0.027869131416082382, 0.029065273702144623, 0.030261414125561714, 0.031457558274269104, 0.032653696835041046, 0.03384983912110329, 0.03504598140716553, 0.03624212369322777, 0.03743826597929001, 0.03863440826535225, 0.03983055055141449, 0.04102668911218643, 0.04222283512353897]}, "gradients/conv2.lin_src.weight": {"_type": "histogram", "values": [1.0, 0.0, 0.0, 0.0, 0.0, 0.0, 0.0, 0.0, 2.0, 2.0, 0.0, 3.0, 0.0, 2.0, 3.0, 2.0, 4.0, 4.0, 6.0, 3.0, 10.0, 10.0, 14.0, 16.0, 20.0, 23.0, 24.0, 36.0, 30.0, 45.0, 37.0, 27.0, 19.0, 9.0, 13.0, 9.0, 13.0, 9.0, 6.0, 8.0, 9.0, 5.0, 8.0, 1.0, 4.0, 2.0, 2.0, 1.0, 2.0, 1.0, 1.0, 0.0, 0.0, 0.0, 0.0, 1.0, 0.0, 0.0, 0.0, 0.0, 0.0, 0.0, 0.0, 1.0], "bins": [-0.006659982725977898, -0.006422725040465593, -0.006185467354953289, -0.005948210135102272, -0.005710952449589968, -0.005473694764077663, -0.005236437078565359, -0.004999179393053055, -0.004761922173202038, -0.0045246644876897335, -0.004287406802177429, -0.004050149582326412, -0.003812891896814108, -0.0035756342113018036, -0.0033383765257894993, -0.0031011190731078386, -0.0028638613875955343, -0.00262660370208323, -0.0023893462494015694, -0.002152088563889265, -0.0019148311112076044, -0.0016775734256953, -0.0014403158565983176, -0.0012030582875013351, -0.0009658006019890308, -0.0007285430328920484, -0.0004912854637950659, -0.0002540278364904225, -1.6770267393440008e-05, 0.00022048735991120338, 0.00045774492900818586, 0.0006950024981051683, 0.000932259950786829, 0.0011695175198838115, 0.001406775088980794, 0.0016440327744930983, 0.001881290227174759, 0.0021185479126870632, 0.0023558055981993675, 0.002593063050881028, 0.002830320503562689, 0.003067578189074993, 0.003304835641756654, 0.003542093327268958, 0.0037793507799506187, 0.004016608465462923, 0.004253866150975227, 0.004491123370826244, 0.004728381521999836, 0.00496563920751214, 0.005202896893024445, 0.005440154112875462, 0.005677411798387766, 0.00591466948390007, 0.0061519271694123745, 0.006389184854924679, 0.006626442074775696, 0.006863699760288, 0.007100957445800304, 0.007338214665651321, 0.007575472351163626, 0.00781273003667593, 0.008049987256526947, 0.008287245407700539, 0.008524502627551556]}, "gradients/conv1.bias": {"_type": "histogram", "values": [3.0, 1.0, 0.0, 0.0, 1.0, 2.0, 3.0, 0.0, 0.0, 1.0, 0.0, 1.0, 1.0, 1.0, 1.0, 1.0, 1.0, 1.0, 2.0, 0.0, 0.0, 1.0, 1.0, 3.0, 1.0, 4.0, 1.0, 2.0, 2.0, 1.0, 1.0, 2.0, 1.0, 1.0, 1.0, 1.0, 1.0, 1.0, 1.0, 3.0, 1.0, 1.0, 1.0, 1.0, 0.0, 0.0, 1.0, 2.0, 1.0, 1.0, 1.0, 1.0, 1.0, 0.0, 2.0, 0.0, 0.0, 0.0, 0.0, 0.0, 0.0, 0.0, 0.0, 1.0], "bins": [-0.0037793240044265985, -0.0036470594350248575, -0.0035147948656231165, -0.0033825302962213755, -0.003250265493988991, -0.0031180009245872498, -0.0029857363551855087, -0.0028534717857837677, -0.0027212072163820267, -0.0025889426469802856, -0.0024566780775785446, -0.0023244135081768036, -0.0021921489387750626, -0.0020598843693733215, -0.0019276195671409369, -0.0017953549977391958, -0.0016630904283374548, -0.0015308258589357138, -0.0013985612895339727, -0.0012662966037169099, -0.0011340320343151689, -0.0010017674649134278, -0.0008695028373040259, -0.000737238209694624, -0.0006049736402928829, -0.00047270904178731143, -0.00034044444328173995, -0.00020817984477616847, -7.591524627059698e-05, 5.634932313114405e-05, 0.000188613950740546, 0.00032087857834994793, 0.0004531429149210453, 0.0005854074843227863, 0.0007176721119321883, 0.0008499367395415902, 0.0009822013089433312, 0.0011144658783450723, 0.0012467305641621351, 0.0013789951335638762, 0.0015112597029656172, 0.0016435242723673582, 0.0017757888417690992, 0.001908053527586162, 0.002040318213403225, 0.002172582782804966, 0.002304847352206707, 0.002437111921608448, 0.002569376491010189, 0.00270164106041193, 0.002833905629813671, 0.002966170199215412, 0.003098434768617153, 0.003230699338018894, 0.003362964140251279, 0.00349522870965302, 0.003627493279054761, 0.003759757848456502, 0.003892022417858243, 0.004024287220090628, 0.004156551789492369, 0.00428881635889411, 0.004421080928295851, 0.004553345497697592, 0.004685610067099333]}, "gradients/conv1.att_dst": {"_type": "histogram", "values": [1.0, 0.0, 0.0, 0.0, 0.0, 0.0, 0.0, 0.0, 0.0, 0.0, 0.0, 0.0, 0.0, 0.0, 0.0, 0.0, 0.0, 0.0, 0.0, 0.0, 1.0, 0.0, 1.0, 0.0, 0.0, 1.0, 0.0, 0.0, 1.0, 0.0, 1.0, 1.0, 1.0, 0.0, 1.0, 0.0, 1.0, 4.0, 2.0, 1.0, 2.0, 3.0, 1.0, 1.0, 2.0, 3.0, 4.0, 1.0, 3.0, 5.0, 3.0, 4.0, 1.0, 4.0, 0.0, 1.0, 0.0, 3.0, 1.0, 1.0, 2.0, 0.0, 1.0, 1.0], "bins": [-0.0018893021624535322, -0.0018508981447666883, -0.0018124940106645226, -0.0017740899929776788, -0.001735685858875513, -0.0016972818411886692, -0.0016588777070865035, -0.0016204736893996596, -0.001582069555297494, -0.00154366553761065, -0.0015052614035084844, -0.0014668573858216405, -0.0014284532517194748, -0.001390049234032631, -0.0013516450999304652, -0.0013132410822436213, -0.0012748370645567775, -0.0012364330468699336, -0.001198028912767768, -0.001159624895080924, -0.0011212207609787583, -0.0010828167432919145, -0.0010444126091897488, -0.001006008591502905, -0.0009676045156084001, -0.0009292004397138953, -0.0008907963638193905, -0.0008523922879248857, -0.0008139882702380419, -0.0007755841361358762, -0.0007371801184490323, -0.0006987760425545275, -0.0006603720248676836, -0.0006219679489731789, -0.0005835638730786741, -0.0005451597971841693, -0.0005067557794973254, -0.0004683516744989902, -0.00042994762770831585, -0.00039154355181381106, -0.0003531394759193063, -0.0003147354000248015, -0.0002763313241302967, -0.00023792727733962238, -0.0001995232014451176, -0.0001611191255506128, -0.00012271506420802325, -8.431100286543369e-05, -4.590692697092891e-05, -7.502858352381736e-06, 3.0901210266165435e-05, 6.93052788847126e-05, 0.00010770934750325978, 0.00014611342339776456, 0.00018451748474035412, 0.00022292154608294368, 0.00026132562197744846, 0.00029972969787195325, 0.00033813377376645803, 0.00037653782055713236, 0.00041494189645163715, 0.00045334597234614193, 0.0004917500191368163, 0.000530154095031321, 0.0005685581709258258]}, "gradients/conv1.att_src": {"_type": "histogram", "values": [1.0, 1.0, 0.0, 0.0, 0.0, 1.0, 0.0, 1.0, 0.0, 0.0, 0.0, 0.0, 0.0, 1.0, 0.0, 1.0, 0.0, 1.0, 0.0, 1.0, 0.0, 0.0, 1.0, 0.0, 1.0, 2.0, 0.0, 1.0, 1.0, 2.0, 1.0, 2.0, 3.0, 0.0, 1.0, 6.0, 3.0, 2.0, 0.0, 1.0, 2.0, 3.0, 0.0, 0.0, 2.0, 2.0, 1.0, 3.0, 3.0, 1.0, 0.0, 0.0, 3.0, 1.0, 2.0, 1.0, 0.0, 2.0, 0.0, 1.0, 1.0, 0.0, 0.0, 1.0], "bins": [-0.0038458199705928564, -0.003747419686987996, -0.0036490196362137794, -0.003550619352608919, -0.0034522193018347025, -0.003353819018229842, -0.0032554189674556255, -0.0031570186838507652, -0.003058618400245905, -0.0029602181166410446, -0.002861818065866828, -0.0027634177822619677, -0.002665017731487751, -0.0025666174478828907, -0.0024682171642780304, -0.0023698171135038137, -0.002271417062729597, -0.002173016779124737, -0.00207461672835052, -0.00197621644474566, -0.0018778163939714432, -0.0017794161103665829, -0.0016810159431770444, -0.001582615775987506, -0.0014842154923826456, -0.0013858153251931071, -0.0012874151580035686, -0.0011890148743987083, -0.0010906148236244917, -0.0009922145400196314, -0.0008938143728300929, -0.0007954142056405544, -0.0006970143876969814, -0.000598614220507443, -0.0005002140533179045, -0.0004018138279207051, -0.0003034136607311666, -0.00020501349354162812, -0.00010661326814442873, -8.213100954890251e-06, 9.01869498193264e-05, 0.0001885871315607801, 0.0002869873133022338, 0.00038538750959560275, 0.00048378767678514123, 0.0005821878439746797, 0.0006805880693718791, 0.0007789882365614176, 0.0008773885201662779, 0.0009757886873558164, 0.0010741888545453548, 0.0011725891381502151, 0.0012709891889244318, 0.001369389472529292, 0.0014677896397188306, 0.001566189806908369, 0.0016645899740979075, 0.001762990141287446, 0.0018613903084769845, 0.001959790475666523, 0.0020581907592713833, 0.0021565908100456, 0.0022549910936504602, 0.002353391144424677, 0.002451791428029537]}, "gradients/conv1.lin_src.weight": {"_type": "histogram", "values": [1.0, 0.0, 1.0, 1.0, 1.0, 3.0, 11.0, 3.0, 1.0, 5.0, 6.0, 5.0, 8.0, 7.0, 14.0, 10.0, 16.0, 16.0, 24.0, 38.0, 33.0, 57.0, 48.0, 58.0, 76.0, 99.0, 134.0, 165.0, 314.0, 435.0, 980.0, 1686.0, 5754.0, 73064.0, 4702.0, 1661.0, 773.0, 422.0, 240.0, 182.0, 175.0, 72.0, 74.0, 63.0, 32.0, 26.0, 32.0, 36.0, 23.0, 25.0, 15.0, 16.0, 11.0, 30.0, 15.0, 8.0, 2.0, 1.0, 0.0, 0.0, 0.0, 0.0, 0.0, 2.0], "bins": [-0.0043622273951768875, -0.0042318240739405155, -0.004101421218365431, -0.003971017897129059, -0.003840614575892687, -0.0037102114874869585, -0.00357980839908123, -0.003449405077844858, -0.00331900198943913, -0.0031885989010334015, -0.0030581955797970295, -0.002927792491391301, -0.002797389402985573, -0.002666986081749201, -0.0025365829933434725, -0.002406179904937744, -0.002275776583701372, -0.002145373495295644, -0.002014970174059272, -0.0018845670856535435, -0.0017541638808324933, -0.0016237606760114431, -0.0014933575876057148, -0.0013629543827846646, -0.0012325511779636145, -0.0011021479731425643, -0.000971744826529175, -0.0008413416799157858, -0.0007109384750947356, -0.0005805352702736855, -0.0004501321236602962, -0.00031972897704690695, -0.00018932530656456947, -5.892213084734976e-05, 7.148104486986995e-05, 0.00020188422058708966, 0.00033228739630430937, 0.00046269060112535954, 0.0005930937477387488, 0.000723496894352138, 0.0008539000991731882, 0.0009843033039942384, 0.0011147065088152885, 0.0012451095972210169, 0.001375512802042067, 0.0015059160068631172, 0.0016363190952688456, 0.0017667223000898957, 0.001897125504910946, 0.0020275285933166742, 0.0021579319145530462, 0.0022883350029587746, 0.0024187383241951466, 0.002549141412600875, 0.0026795445010066032, 0.0028099478222429752, 0.0029403509106487036, 0.003070753999054432, 0.003201157320290804, 0.0033315604086965322, 0.0034619634971022606, 0.0035923668183386326, 0.003722769906744361, 0.0038531729951500893, 0.003983576316386461]}, "_wandb": {"runtime": 213}}